0.13749379254951807
-0.02356195815223254
-0.011880932038417606
0.008102045544537886
-0.07855328906014773
0.10405813593820341
0.13252326565751388
0.16465196883962843
0.010164673868269847
0.08584426925781632
0.26473692159828244
0.42971231803726956
0.06808232265319475
-0.12272740461521557
0.20562868065139012
0.04673041807032992
-0.37227329056447966
0.3604009930574111
0.22411487482074455
-0.19150845255728471
-0.5868097913733326
0.30370816875196
0.3771365481408431
0.3068099131419076
0.46729710522052664
-0.1754768901967529
-0.28677631731905834
-0.9568500470085854
-0.2491678603403046
0.1961299622234717
0.5253092998716037
-0.45715030828048214
0.010961176857099374
0.1630396861410732
-0.5697278194063401
-0.045468336714458296
-0.6579295628019717
0.18995311052569025
0.46656139071238456
-0.20894994164147165
-0.5031232257948686
-0.1674643854272863
0.300567615791241
0.4964659948285728
0.2089057333738956
-0.4455053254880586
-0.3831082368935335
0.14493643107861684
0.5673366710257962
-0.2990588078011358
