-1.0732323876418197E-4
9.334533935148433E-5
-3.1258085707383857E-4
5.72638120289768E-4
-2.026078948310237E-4
-1.1699976037606803E-4
8.438056567313494E-5
2.2153349906634337E-4
1.8005927620885276E-4
-3.8463438429366E-5
-4.070970400564212E-4
-1.2754952255050132E-4
9.358319664895922E-5
-4.41391968509378E-4
2.540337767020992E-4
2.3159385473305066E-4
-2.0181677851755647E-4
2.2315665120485452E-4
-1.0642538288244732E-4
2.264356500170207E-4
5.594671987751956E-4
-1.0969668106431523E-5
1.2496271434355387E-4
-2.8529586600845634E-5
-1.355179244949236E-4
2.6708218869090717E-4
-3.110245876918992E-4
1.1081985605639218E-4
1.6450499429381405E-4
3.8086429366515997E-4
-4.94716301031677E-4
-1.750806934669748E-4
2.761300558857534E-4
1.9065804001497133E-4
-1.4407246459140612E-4
-3.927802574117092E-4
1.9079484010346622E-4
-1.4562260049952265E-4
8.676559418140101E-5
-4.829212284127104E-5
6.376462960588459E-4
7.60240965803419E-4
2.6854412500835356E-4
-3.748078460100922E-4
-1.587670010102326E-4
-3.134951081918308E-5
3.462877370372448E-4
-1.5107879622345386E-4
-1.1445525268709667E-5
-1.0383202605226271E-4
-2.712729397342782E-4
1.2479116919388047E-4
-5.142913407160475E-5
-2.3492376104832188E-4
1.1183889518762701E-4
2.7688422357298584E-4
-8.022103673948797E-5
3.74852048728969E-4
-2.3545678821340263E-4
-8.457466000687792E-5
4.654250685380678E-5
2.2851397882067678E-5
5.25575762902241E-4
1.848133261966646E-5
3.93637464802088E-5
-8.99173519210943E-5
-3.789202085943576E-5
3.0378695525696056E-4
-3.504689873259783E-4
1.3134665674596267E-4
-1.2573224331179336E-4
-3.876131809550715E-5
1.6335136555006876E-4
8.834619712974208E-5
-1.5171046546843037E-4
1.2136892980059875E-4
6.0668100257704E-5
1.7686897917953962E-4
-3.1857974456713515E-4
-1.4607750113139516E-4
8.581861775920215E-5
6.913644761223188E-5
7.555159467933917E-4
3.2660023246568925E-4
-1.1450743458091636E-4
3.906792029420434E-5
-1.5521028484265922E-4
2.515117079158267E-4
-3.5319466224269756E-4
3.681754171533726E-4
-1.5403762073168292E-4
1.899181759748697E-4
-2.3445871756729117E-4
-1.5633315706278114E-4
4.308530579506328E-4
3.999296727003502E-4
-3.8761664652702454E-4
3.9528526842165995E-5
-4.2186552479602597E-4
2.6390264498789935E-4
1.0571502339744296E-4
-2.0605988363610792E-4
-3.6182608306371475E-5
7.585307726243035E-4
7.88957015757703E-4
-7.518540313216583E-5
-3.8482804612562255E-5
-1.372522745729996E-4
2.5086005656082026E-4
1.5160039065954733E-4
-1.981028240785016E-4
4.279807280247083E-5
4.358580047088594E-5
2.3327922556016937E-4
-7.46481276725959E-5
-4.201530158579604E-4
-2.0375760911476494E-4
1.293436421253465E-4
2.1044724225941728E-4
6.39888672862542E-5
1.703219889547388E-5
1.1056708930688979E-4
-1.4277366955706573E-4
4.660398971076031E-5
6.411047786212784E-4
6.620683685740315E-4
-1.3266511400235543E-4
8.423339208890558E-5
-1.6535242792410914E-4
3.7663434547574923E-4
-1.829012787747412E-4
5.386036425186763E-6
-4.4446680817541775E-5
-1.0744400988535371E-4
1.0440708037338608E-5
3.7712450332382023E-4
-3.98494216893905E-4
-2.9797340523656863E-4
1.9609626153301268E-4
-2.083733147608161E-5
1.99526199911017E-4
1.1153030907787566E-4
-2.8383871661038263E-5
-1.1428671066977254E-4
9.926497884085191E-5
6.423574831966509E-4
7.421239796146106E-4
1.9943800883793673E-4
2.3260555867741665E-5
1.1588352764453936E-5
-1.0256754108589999E-4
-1.667749058866807E-4
-1.3017709219233624E-4
2.870345098029163E-4
2.7187639765622153E-4
-3.1885336757120114E-4
-1.3776392320782424E-4
-4.056235423498455E-4
4.6983293619297584E-4
1.6427420579044255E-4
-2.1623362051887316E-4
7.190246281010543E-5
-3.7539608452926517E-6
4.7995613641649325E-5
-1.4450924275497676E-4
1.0417427684672432E-4
7.928819252068351E-4
6.875759676567447E-4
8.510500333141305E-5
9.514985033121663E-5
-9.677919670584102E-5
-2.582960286594687E-4
6.912055015519798E-5
5.8296507464770555E-5
1.044183626595677E-4
-1.5127218897407062E-4
-1.4303510261473468E-4
2.2167104464608785E-4
-9.265839364042479E-5
3.566345964403294E-4
4.514957720189326E-5
1.8026386693482317E-4
-2.786444337002849E-4
-2.1922545586844293E-4
1.9759008327482054E-4
-1.6969865325282613E-4
1.1106470803906123E-4
8.716896123151283E-4
4.725541833791833E-4
-3.1801991536429804E-4
3.838919505554936E-4
3.770848722851754E-5
-1.2391077599185402E-4
-1.0814777279530903E-4
1.941414747614323E-4
-1.2482870180759506E-4
-2.9841942162717747E-4
3.8979832805997264E-4
-6.295500557640565E-6
-4.566273852866985E-4
1.474925515207498E-4
4.345596971276341E-4
3.1653178664342997E-4
-3.437623874558539E-4
-1.5762004601811588E-4
1.6801864980360725E-4
-8.947387236039956E-5
2.00766775706961E-5
8.700508438388794E-5
8.515130228768896E-5
2.3854993289457944E-4
-2.467060945212263E-4
3.2012821420251844E-4
-5.929139417077104E-5
-3.8167077376431745E-4
1.3157092996487934E-4
-2.7214374651524733E-5
1.9924805001356598E-4
1.680009222047286E-4
-2.1599211157389558E-4
-1.6141735358977106E-4
5.138250319000353E-4
-2.6899765774858844E-4
-3.0819481929053507E-4
2.6086980882650457E-5
7.27499142701192E-5
3.068911768588354E-4
-3.4416989628287297E-4
8.276622058736666E-5
5.640641118571828E-4
1.906457921294069E-4
1.4122249126996154E-4
-1.7469879251336324E-4
3.309648783580176E-4
-1.9878865721582422E-4
8.534494639295074E-5
-2.2339669854058616E-4
3.084213419764217E-5
1.0620198582375311E-4
-1.6372814035792155E-5
-1.2298916454249302E-4
2.5257624157214143E-4
-1.193803539389257E-4
1.9416764152673557E-4
-3.941911047559639E-5
-6.360082064088327E-5
-1.668193617033537E-4
-2.62954857440859E-4
2.3632910444234498E-4
-6.843883505296228E-5
7.652127108374496E-4
9.628984802988133E-4
-1.6253554972301643E-4
2.9719540978784644E-4
-1.8554843510768977E-4
-2.635362443829352E-4
3.371005213774432E-4
-1.6520234823784273E-5
-1.0511407234259892E-4
-2.184202587302517E-4
-3.2073732564028435E-4
3.835395166328315E-4
-2.7139464492395343E-4
2.17913343563781E-4
1.7233024647676677E-5
2.111621442892313E-4
-1.462089050200296E-4
2.7186063876935486E-4
-2.4964358321079825E-4
-7.090728815228809E-6
4.9385137258175334E-5
1.5148489776914184E-4
6.545713455034851E-4
-1.3201732100702799E-4
-1.314423023228574E-4
2.8332045816603375E-4
2.2260859262977553E-4
-3.2990155185309855E-5
-1.867821684757652E-4
-1.0786823634320627E-4
2.7642797567565224E-4
-1.651594240246573E-5
1.9809904544333893E-4
-3.1253977690026745E-4
-3.962757438383285E-5
5.28550961933348E-5
-3.060733860416493E-4
8.955955717739672E-5
1.2395666731442845E-4
5.432563365984372E-5
-9.843927327779508E-5
3.673964264506815E-5
-1.2132651850192406E-5
2.007147301819462E-4
-1.2564033483606214E-4
-4.560542618642734E-5
1.612675548431994E-4
3.4353328569224886E-4
-2.844541188960013E-4
1.0554193876558099E-4
-2.710971485437505E-4
3.7568008382743727E-4
3.3621149044267236E-4
-2.1836467141869261E-4
3.101922197930061E-4
-2.1809106977872532E-4
-2.8364025985560637E-4
-1.0718306325255378E-4
2.4399886363869026E-4
-3.354092111452591E-4
-1.3861185775407083E-5
1.2963973892346674E-4
-2.60401560511173E-5
8.680305416573209E-4
3.936689839470743E-4
-5.905854913565048E-5
1.7595780212819153E-4
-2.2304946884378927E-4
1.9770537035765754E-5
2.1925790162049783E-6
4.208176699040497E-5
1.2205576455692104E-4
-2.526770481392529E-4
8.698357070816393E-5
-1.4016605927182204E-4
3.756899267836967E-4
-2.9672264768558954E-4
4.1044328022396353E-4
3.395576564940929E-5
-3.207880948782381E-4
6.449025651298348E-5
-3.042919177599127E-4
2.9583680981133805E-4
-7.053324621553799E-5
4.355932857246013E-4
4.25330361956476E-4
2.441240266315279E-5
-9.637792159733212E-6
2.801662777170684E-4
-4.270586845839528E-4
1.8444643241584673E-5
1.030945621436216E-4
2.732098729285446E-5
-1.3925396783753442E-4
-2.0244931390258456E-4
3.5725394731341725E-4
-4.528098871934915E-5
-1.613659152945032E-4
2.731743097275313E-4
5.230502495372761E-5
-1.7936603528457382E-4
2.3786438635865347E-5
7.684144506543238E-5
-1.2761450783937923E-4
9.79246309601615E-5
6.490689985364469E-4
8.87681787088148E-4
-1.1895558517521631E-4
1.7743836335289639E-4
-2.1395578929405757E-4
1.0001957416158417E-4
2.4218241702452808E-4
-1.8172414932966988E-4
-1.1765711532245517E-4
1.9340533992196426E-4
1.8468272611170202E-4
-2.703384026651483E-4
4.62748825372101E-4
2.548797032765417E-5
-2.0200642450291165E-4
-1.4775564308432682E-4
-2.5228744660701425E-4
1.0110396694368457E-4
-1.0819349403690421E-4
1.6380631639791085E-5
-6.584998400707857E-6
2.7627213185075936E-4
7.51598641129533E-4
-1.8692214827145195E-5
1.8853251972710465E-5
9.015942344005785E-5
1.810152300360988E-5
-1.3270327169620047E-4
-2.4690349491959325E-5
1.9367713840827186E-4
-3.662640622525506E-5
2.5664057810924806E-4
-4.3068071989433324E-4
2.9860255565853966E-4
-2.192648615365634E-4
-1.6413509734068918E-4
3.614379343206108E-4
1.3555980166358777E-4
-3.597677399784424E-4
3.4487080860429024E-4
-1.6697606343279254E-4
2.8073680565218357E-5
5.656979592394066E-4
6.899856895331531E-4
-2.0245438255764867E-4
4.407542365610513E-4
1.6088336156834654E-4
-2.4309233987783322E-4
-1.3642287988447363E-4
1.142780596688291E-4
-1.566371864919606E-4
4.3596006704998746E-4
-3.06467433206665E-4
1.3757989475414236E-4
-5.141571383984593E-4
4.2820125751929144E-4
-9.77440828415694E-5
3.1951703028035766E-4
-2.237062970100235E-4
-1.53953853609621E-4
-4.9047370363990385E-5
1.7349825952045733E-4
-9.276391719711445E-5
4.0746649052067306E-4
3.761083716932646E-4
