-1.0732323876418197E-4
9.334533935148433E-5
-3.1258085707383857E-4
5.72638120289768E-4
-2.026078948310237E-4
-1.1699976037606803E-4
8.438056567313494E-5
2.2153349906634337E-4
1.8005927620885276E-4
-3.8463438429366E-5
-4.070970400564212E-4
-1.2754952255050132E-4
9.358319664895922E-5
-4.41391968509378E-4
2.540337767020992E-4
2.3159385473305066E-4
-2.0181677851755647E-4
2.2315665120485452E-4
-1.0642538288244732E-4
2.264356500170207E-4
5.594671987751956E-4
-1.0969668106431523E-5
1.2496271434355387E-4
-2.8529586600845634E-5
-1.355179244949236E-4
2.6708218869090717E-4
-3.110245876918992E-4
1.1081985605639218E-4
1.6450499429381405E-4
3.8086429366515997E-4
-4.94716301031677E-4
-1.750806934669748E-4
2.761300558857534E-4
1.9065804001497133E-4
-1.4407246459140612E-4
-3.927802574117092E-4
1.9079484010346622E-4
-1.4562260049952265E-4
8.676559418140101E-5
-4.829212284127104E-5
6.376462960588459E-4
7.60240965803419E-4
2.6854412500835356E-4
-3.748078460100922E-4
-1.587670010102326E-4
-3.134951081918308E-5
3.462877370372448E-4
-1.5107879622345386E-4
-1.1445525268709667E-5
-1.0383202605226271E-4
-2.712729397342782E-4
1.2479116919388047E-4
-5.142913407160475E-5
-2.3492376104832188E-4
1.1183889518762701E-4
2.7688422357298584E-4
-8.022103673948797E-5
3.74852048728969E-4
-2.3545678821340263E-4
-8.457466000687792E-5
4.654250685380678E-5
2.2851397882067678E-5
5.25575762902241E-4
1.848133261966646E-5
3.93637464802088E-5
-8.99173519210943E-5
-3.789202085943576E-5
3.0378695525696056E-4
-3.504689873259783E-4
1.3134665674596267E-4
-1.2573224331179336E-4
-3.876131809550715E-5
1.6335136555006876E-4
8.834619712974208E-5
-1.5171046546843037E-4
1.2136892980059875E-4
6.0668100257704E-5
1.7686897917953962E-4
-3.1857974456713515E-4
-1.4607750113139516E-4
8.581861775920215E-5
6.913644761223188E-5
7.555159467933917E-4
3.2660023246568925E-4
-1.1450743458091636E-4
3.906792029420434E-5
-1.5521028484265922E-4
2.515117079158267E-4
-3.5319466224269756E-4
3.681754171533726E-4
-1.5403762073168292E-4
1.899181759748697E-4
-2.3445871756729117E-4
-1.5633315706278114E-4
4.308530579506328E-4
3.999296727003502E-4
-3.8761664652702454E-4
3.9528526842165995E-5
-4.2186552479602597E-4
2.6390264498789935E-4
1.0571502339744296E-4
-2.0605988363610792E-4
-3.6182608306371475E-5
7.585307726243035E-4
7.88957015757703E-4
-7.518540313216583E-5
-3.8482804612562255E-5
-1.372522745729996E-4
2.5086005656082026E-4
1.5160039065954733E-4
-1.981028240785016E-4
4.279807280247083E-5
4.358580047088594E-5
2.3327922556016937E-4
-7.46481276725959E-5
-4.201530158579604E-4
-2.0375760911476494E-4
1.293436421253465E-4
2.1044724225941728E-4
6.39888672862542E-5
1.703219889547388E-5
1.1056708930688979E-4
-1.4277366955706573E-4
4.660398971076031E-5
6.411047786212784E-4
6.620683685740315E-4
-1.3266511400235543E-4
8.423339208890558E-5
-1.6535242792410914E-4
3.7663434547574923E-4
-1.829012787747412E-4
5.386036425186763E-6
-4.4446680817541775E-5
-1.0744400988535371E-4
1.0440708037338608E-5
3.7712450332382023E-4
-3.98494216893905E-4
-2.9797340523656863E-4
1.9609626153301268E-4
-2.083733147608161E-5
1.99526199911017E-4
1.1153030907787566E-4
-2.8383871661038263E-5
-1.1428671066977254E-4
9.926497884085191E-5
6.423574831966509E-4
7.421239796146106E-4
1.9943800883792786E-4
2.3260555867751003E-5
1.1588352764463497E-5
-1.025675410858911E-4
-1.6677490588669008E-4
-1.3017709219238443E-4
2.8703450980290717E-4
2.718763976562312E-4
-3.1885336757120976E-4
-1.3776392320783389E-4
-4.0562354234985435E-4
4.6983293619296587E-4
1.6427420579043315E-4
-2.1623362051888283E-4
7.19024628100954E-5
-3.753960845283152E-6
4.799561364163972E-5
-1.4450924275492816E-4
1.0417427684671451E-4
7.928819252068352E-4
6.875759676567447E-4
8.510500333139124E-5
9.514985033119385E-5
-9.677919670586402E-5
-2.5829602865948937E-4
6.912055015517493E-5
5.829650746474701E-5
1.0441836265956444E-4
-1.512721889740548E-4
-1.4303510261473666E-4
2.2167104464608392E-4
-9.265839364042865E-5
3.5663459644032474E-4
4.514957720188941E-5
1.8026386693484125E-4
-2.786444337002684E-4
-2.1922545586848486E-4
1.9759008327479812E-4
-1.6969865325286784E-4
1.1106470803907911E-4
8.716896123151087E-4
4.725541833791833E-4
-3.180199153643008E-4
3.838919505554925E-4
3.7708487228515595E-5
-1.239107759918518E-4
-1.0814777279542349E-4
1.9414147476156708E-4
-1.2482870180757777E-4
-2.9841942162721894E-4
3.8979832805995134E-4
-6.295500557661958E-6
-4.566273852866978E-4
1.4749255152074811E-4
4.345596971276308E-4
3.1653178664340823E-4
-3.437623874558569E-4
-1.5762004601811458E-4
1.6801864980361535E-4
-8.947387236029528E-5
2.007667757072347E-5
8.700508438392629E-5
8.515130228768896E-5
2.3854993289458603E-4
-2.4670609452127657E-4
3.2012821420246494E-4
-5.929139417081662E-5
-3.816707737638653E-4
1.31570929964635E-4
-2.7214374651670267E-5
1.9924805001361284E-4
1.6800092220473816E-4
-2.159921115738827E-4
-1.6141735358978133E-4
5.138250319000248E-4
-2.6899765774860226E-4
-3.081948192905682E-4
2.608698088260421E-5
7.274991427005099E-5
3.068911768589268E-4
-3.441698962830379E-4
8.276622058751014E-5
5.640641118570766E-4
1.906457921294069E-4
1.41222491269953E-4
-1.7469879251337113E-4
3.309648783580472E-4
-1.987886572157964E-4
8.534494639183303E-5
-2.2339669853977895E-4
3.084213419796387E-5
1.062019858235227E-4
-1.6372814035809963E-5
-1.2298916454254975E-4
2.525762415721048E-4
-1.1938035393896312E-4
1.9416764152670166E-4
-3.941911047567055E-5
-6.360082064093917E-5
-1.6681936170315884E-4
-2.6295485744106333E-4
2.363291044424908E-4
-6.843883505286183E-5
7.652127108376791E-4
9.628984802988133E-4
-1.6253554972293227E-4
2.9719540978790694E-4
-1.855484351075874E-4
-2.63536244382832E-4
3.371005213770003E-4
-1.6520234823714484E-5
-1.0511407234240389E-4
-2.1842025873037527E-4
-3.2073732564032837E-4
3.8353951663274897E-4
-2.7139464492398054E-4
2.179133435637601E-4
1.723302464764953E-5
2.1116214428911802E-4
-1.4620890502012367E-4
2.7186063876920134E-4
-2.4964358321103716E-4
-7.090728815238873E-6
4.938513725832122E-5
1.5148489776911398E-4
6.545713455034851E-4
-1.3201732100746942E-4
-1.3144230232370476E-4
2.8332045816513836E-4
2.226085926288713E-4
-3.299015517419324E-5
-1.867821684821971E-4
-1.0786823634661924E-4
2.7642797567737194E-4
-1.65159424019023E-5
1.9809904544411391E-4
-3.125397768998388E-4
-3.962757438341346E-5
5.28550961937564E-5
-3.0607338604174455E-4
8.955955717702902E-5
1.239566673118012E-4
5.432563366132689E-5
-9.843927327948063E-5
3.673964264610865E-5
-1.213265185192914E-5
2.007147301819462E-4
-1.2564033483565215E-4
-4.5605426185922255E-5
1.6126755484367533E-4
3.435332856927253E-4
-2.844541189126482E-4
1.0554193877733725E-4
-2.7109714853929104E-4
3.75680083824347E-4
3.3621149044159884E-4
-2.1836467141983734E-4
3.101922197926022E-4
-2.1809106977912932E-4
-2.8364025985601105E-4
-1.0718306325273491E-4
2.4399886363910293E-4
-3.3540921114127493E-4
-1.3861185778211985E-5
1.2963973892510052E-4
-2.60401560521712E-5
8.680305416606054E-4
3.936689839470743E-4
-5.9058549131938566E-5
1.7595780213425403E-4
-2.2304946883689236E-4
1.977053704266263E-5
2.192578938402251E-6
4.208176703036394E-5
1.2205576458112698E-4
-2.526770481510931E-4
8.698357070482597E-5
-1.4016605927709682E-4
3.7568992678155017E-4
-2.9672264768774645E-4
4.104432802218153E-4
3.3955765649028996E-5
-3.207880948766055E-4
6.449025652782715E-5
-3.0429191777269827E-4
2.958368098210779E-4
-7.053324622058709E-5
4.355932857351357E-4
4.25330361956476E-4
2.4412402657893674E-5
-9.637792167740126E-6
2.8016627770850375E-4
-4.2705868459252787E-4
1.8444643414764418E-5
1.0309456203015393E-4
2.732098724521952E-5
-1.3925396780883285E-4
-2.0244931389205943E-4
3.5725394732538304E-4
-4.528098871349736E-5
-1.6136591528864968E-4
2.7317430973339437E-4
5.230502495331011E-5
-1.7936603529047478E-4
2.3786438593353045E-5
7.684144509085953E-5
-1.2761450786005142E-4
9.79246309732278E-5
6.490689985048675E-4
8.87681787088148E-4
-1.1895558520482716E-4
1.7743836330136903E-4
-2.1395578935431056E-4
1.0001957410132069E-4
2.421824176742765E-4
-1.8172414966091788E-4
-1.1765711552756106E-4
1.9340534002009496E-4
1.8468272613961112E-4
-2.7033840262024916E-4
4.627488253932273E-4
2.5487970348794343E-5
-2.0200642448177833E-4
-1.477556430828965E-4
-2.522874466220359E-4
1.0110396681628903E-4
-1.0819349393263591E-4
1.638063155163519E-5
-6.584998354910875E-6
2.7627213176285056E-4
7.51598641129533E-4
-1.869221479312687E-5
1.885325201603384E-5
9.015942348256595E-5
1.8101523046117934E-5
-1.327032727071588E-4
-2.469034880367964E-5
1.9367713866982688E-4
-3.662640639117401E-5
2.566405780458652E-4
-4.306807199629168E-4
2.9860255562745043E-4
-2.1926486156763887E-4
-1.6413509737178548E-4
3.614379343214613E-4
1.3555980169762684E-4
-3.5976773972606045E-4
3.4487080845937296E-4
-1.6697606333073567E-4
2.807368049671012E-5
5.656979594301275E-4
6.899856895331531E-4
-2.024543822848351E-4
4.407542370290978E-4
1.608833621048729E-4
-2.4309233934130005E-4
-1.3642288606809962E-4
1.1427806294555231E-4
-1.5663718457483735E-4
4.359600661001924E-4
-3.0646743348458096E-4
1.3757989433059296E-4
-5.141571385918309E-4
4.28201257325933E-4
-9.774408303493157E-5
3.1951703026586995E-4
-2.237062968614092E-4
-1.5395385237104177E-4
-4.904737134987832E-5
1.734982603323223E-4
-9.276391762234091E-5
4.0746649139607714E-4
3.761083716932646E-4
