-1.1080250423418212E-4
8.716094331874907E-5
-3.19365828277103E-4
5.658531490865115E-4
-1.0960137260293648E-4
-1.707398049036626E-4
5.5794471560221835E-5
2.3665410423487213E-4
1.8450977207558428E-4
-3.2581489600326466E-5
-4.050395974963905E-4
-1.254920799904749E-4
9.564063920898704E-5
-4.415269290892705E-4
2.513448100756173E-4
2.1628013042277692E-4
-1.8066155395145842E-4
2.0348931550047194E-4
-1.0088100933078236E-4
2.115145232548824E-4
5.594671987751956E-4
-1.1230594181885698E-5
1.238132121601839E-4
-3.0596483049741276E-5
-1.375848209438191E-4
2.230731783838787E-4
-2.678256076458723E-4
1.1860787057119548E-4
1.5581546945158938E-4
3.7653224553463777E-4
-4.977508546368949E-4
-1.766365624989099E-4
2.745741868538201E-4
1.8910217098303634E-4
-1.4376962129493458E-4
-3.904505113602771E-4
2.0691084321168215E-4
-1.4955412169575158E-4
8.800977724589115E-5
-5.1877473844225127E-5
6.500585837533957E-4
7.60240965803419E-4
2.798562226269032E-4
-3.5952529849075324E-4
-1.4097547399795926E-4
-1.3557983806909855E-5
1.944492379409845E-4
-8.532557305635973E-5
3.121962181332129E-5
-1.2018290406303165E-4
-2.7598020834731314E-4
1.1458120135824305E-4
-5.594306013134217E-5
-2.3943768710805955E-4
1.0732496912788915E-4
2.762910188326502E-4
-7.754443776975763E-5
3.9990095762900275E-4
-2.607728296561295E-4
-6.670304319413226E-5
3.96123174430435E-5
3.897186223078324E-5
5.25575762902241E-4
2.1564114612300196E-5
5.170287299510059E-5
-7.468736583028188E-5
-2.2662034768622735E-5
2.1631510129792222E-4
-3.290923385305659E-4
1.6760823738088955E-4
-1.3755351652517707E-4
-3.908132663215073E-5
1.576589084427406E-4
8.59089702244863E-5
-1.5414769237368588E-4
1.1893170289534324E-4
5.980631424030502E-5
1.7732315734388316E-4
-3.114053526754266E-4
-1.6416240699043504E-4
1.040130491171519E-4
6.36206783391352E-5
7.5980860454937E-4
3.2660023246568925E-4
-1.1882583140772983E-4
3.886804828527251E-5
-1.5526845364550074E-4
2.5145353911298505E-4
-3.7045861357178837E-4
3.811864457213712E-4
-1.322070593827077E-4
1.764318199580058E-4
-2.3667405002977622E-4
-1.5747956042596505E-4
4.311912951814463E-4
4.0026790993116367E-4
-3.872784092962112E-4
3.977083826393789E-5
-4.2075252326332464E-4
2.6287994504337145E-4
9.278139823853872E-5
-1.8386459362794687E-4
-4.162364219716078E-5
7.652914593759635E-4
7.88957015757703E-4
-7.963340779677943E-5
-4.587195727334607E-5
-1.4586563015750976E-4
2.4224670097630974E-4
1.646248920961582E-4
-1.8389897242770522E-4
5.2878042812262224E-5
3.151775529621076E-5
2.2947800119382512E-4
-7.386110781100824E-5
-4.1839350507961754E-4
-2.0199809833642296E-4
1.311031529036869E-4
2.1164979553265427E-4
6.563738174739106E-5
1.3778956088196204E-5
9.801996422762745E-5
-1.1969605581168598E-4
4.246352519723434E-5
6.494169442052857E-4
6.620683685740315E-4
-1.3559618980673826E-4
7.808947509655627E-5
-1.7326596391542185E-4
3.687208094844362E-4
-1.820922219894131E-4
2.8285403650787933E-5
-3.6741921957741053E-5
-1.1892543315398718E-4
6.8544239116321364E-6
3.774052515005136E-4
-3.9726750935678015E-4
-2.9674669769944343E-4
1.9732296907013825E-4
-1.9506603552023236E-5
2.0121333998037664E-4
1.1157418834390867E-4
-4.178030773737909E-5
-9.421910172220222E-5
9.496831198882716E-5
6.502353732007164E-4
7.421239796146106E-4
2.0092172671291113E-4
2.3933913075522888E-5
1.0799193432622599E-5
-1.0335670041772949E-4
-1.9825603740935673E-4
-1.0217222768590202E-4
2.9896653944620365E-4
2.6063629953652565E-4
-3.207623530802929E-4
-1.390404287309265E-4
-4.056638386986893E-4
4.6979263984412995E-4
1.642339094415976E-4
-2.1545741983481555E-4
7.325267451931702E-5
-9.365779464631513E-7
3.2512781500237885E-5
-1.2621599843285112E-4
9.91781625476225E-5
7.996830974456695E-4
6.875759676567447E-4
8.965556853064961E-5
1.01208915944222E-4
-9.035827560356355E-5
-2.518751075571896E-4
9.34360897104292E-6
8.63000733995223E-5
1.2286088196742577E-4
-1.6259865713355416E-4
-1.4322633815395358E-4
2.1904486131553742E-4
-9.373369058556025E-5
3.5555929949519446E-4
4.4074280256757605E-5
1.803515474037057E-4
-2.7754704054224583E-4
-2.1462385392602236E-4
1.8105656342129957E-4
-1.519419645251586E-4
1.0540477220639529E-4
8.782296162377878E-4
4.725541833791833E-4
-3.1383675619166344E-4
3.9162815324938176E-4
4.8038790545567685E-5
-1.1358047267480229E-4
-1.8489188133460666E-4
2.2310111322252653E-4
-9.964960444341273E-5
-3.1068837541514644E-4
3.8960720352000097E-4
-1.0027220393518218E-5
-4.5829276183812433E-4
1.4582717496932333E-4
4.3289432057620536E-4
3.162669280473746E-4
-3.424451618167694E-4
-1.5004817174763403E-4
1.5153844178698509E-4
-7.19397689665001E-5
1.3965634467945639E-5
9.495222835217018E-5
8.515130228768896E-5
2.406515010262892E-4
-2.3914591573385188E-4
3.3104258703161297E-4
-4.837702134167593E-5
-4.6670980409514636E-4
1.654415222828561E-4
3.6658057291407773E-6
1.857045818623658E-4
1.6610611500254263E-4
-2.2066726444251562E-4
-1.6295444332041262E-4
5.122879421693927E-4
-2.7053474747923027E-4
-3.083226662756525E-4
2.800289801590368E-5
8.199110819030671E-5
2.8672099413144716E-4
-3.2277980653410874E-4
7.724679186893037E-5
5.744768234177632E-4
1.906457921294069E-4
1.41672248345227E-4
-1.6782193175536825E-4
3.401887248887057E-4
-1.8956481068513787E-4
-1.3233129690175796E-6
-1.834200190315319E-4
6.510240626999077E-5
9.1396811774962E-5
-2.0975758493204366E-5
-1.294341079738271E-4
2.4980524705779493E-4
-1.2215134845326955E-4
1.9139664701238825E-4
-3.971816144078762E-5
-6.14981873807121E-5
-1.4895767578193217E-4
-2.7673781720566413E-4
2.497035609078253E-4
-7.53025627700593E-5
7.772059970546087E-4
9.628984802988133E-4
-1.6164180081731678E-4
3.0376169257445443E-4
-1.7878499874640814E-4
-2.5677280802165225E-4
2.558267264996367E-4
2.6191642669639227E-5
-7.134927935988785E-5
-2.327569124077781E-4
-3.2647331217695755E-4
3.767109272859574E-4
-2.7389765900456375E-4
2.1541032948317216E-4
1.4730010567063281E-5
2.1095328963645832E-4
-1.4413625338574826E-4
2.879736304425783E-4
-2.669507917067242E-4
9.698098799542474E-6
4.359886795459316E-5
1.6393236542794782E-4
6.545713455034851E-4
-1.2981588485798688E-4
-1.2576336658261716E-4
2.877308600480566E-4
2.2701899451179898E-4
-1.034858619183208E-4
-1.461303309740918E-4
-7.790592847135181E-5
2.6325886114768023E-4
-2.1906603355226857E-5
1.9169496159671297E-4
-3.149407361606742E-4
-4.202853364424163E-5
5.0454136932922766E-5
-3.0636787309197945E-4
9.125072461141916E-5
1.378397648266173E-4
3.786655140855294E-5
-8.217903202555586E-5
3.137392435642744E-5
-7.139906375113678E-7
2.007147301819462E-4
-1.2274465997321417E-4
-4.1533897100287214E-5
1.6419688930857966E-4
3.464626201576346E-4
-3.431196699169229E-4
1.4130387075512958E-4
-2.463732831791544E-4
3.632524410656243E-4
3.3213141821443606E-4
-2.2364685231174205E-4
3.076976703969164E-4
-2.2058561917480483E-4
-2.861348092516916E-4
-1.0756900014774739E-4
2.4524281753227295E-4
-3.2207476191316347E-4
-2.452878661645923E-5
1.4065333232753197E-4
-3.2026310731155075E-5
8.776195529213634E-4
3.936689839470743E-4
-5.6633910782303015E-5
1.7840694422458753E-4
-2.204464101781759E-4
2.237359570137735E-5
-4.7678068919607414E-5
7.286459582669525E-5
1.4189071508100115E-4
-2.653914389905707E-4
8.450290950328474E-5
-1.438094442865994E-4
3.734287813886522E-4
-2.989837930806394E-4
4.081821348289208E-4
3.370038314891236E-5
-3.1973659459001453E-4
7.754799549096753E-5
-3.093661734793149E-4
3.020460684646582E-4
-7.72336601558602E-5
4.4346927127547034E-4
4.25330361956476E-4
2.5879442532007584E-5
-7.864994104690186E-6
2.8331546845087593E-4
-4.239094938501505E-4
-2.69503070989824E-5
1.304929416740208E-4
4.352828899662331E-5
-1.5236253629430236E-4
-2.032553346498961E-4
3.559219362271687E-4
-4.5639719684370686E-5
-1.617246462595222E-4
2.7281557876252454E-4
5.2729456701265506E-5
-1.7798822123871045E-4
2.9144755690186348E-5
6.503037356863292E-5
-1.12561416261423E-4
9.299375099208106E-5
6.562586890068131E-4
8.87681787088148E-4
-1.1876741546300952E-4
1.788934822561932E-4
-2.1026796580909897E-4
1.0370739764654613E-4
1.9744157333127834E-4
-1.5551331318672208E-4
-1.0298927005147153E-4
1.800834850545657E-4
1.839528614031535E-4
-2.71318856966712E-4
4.6237181058835864E-4
2.511095554391535E-5
-2.0238343928664866E-4
-1.4716737318193985E-4
-2.5072335824025084E-4
1.0878721731771546E-4
-1.1515043908701009E-4
2.6841290098609044E-5
-1.2517134229045436E-5
2.832399007822734E-4
7.51598641129533E-4
-1.871630564560089E-5
2.093910473839628E-5
9.43718304699458E-5
2.2313930033483926E-5
-1.7995805144262167E-4
2.177340276736559E-6
2.0856389106329464E-4
-4.802410077711979E-5
2.553334981781759E-4
-4.3214892828504614E-4
2.9855025430413506E-4
-2.193171628909645E-4
-1.6418739869509028E-4
3.6225033299181977E-4
1.3748680917590966E-4
-3.540618160586399E-4
3.351712950219117E-4
-1.535866122416838E-4
2.2352246735741222E-5
5.735167002255765E-4
6.899856895331531E-4
-2.018934274924363E-4
4.436471353006537E-4
1.6528551705873991E-4
-2.3869018438745385E-4
-1.8731647515281716E-4
1.4195507265137982E-4
-1.4056456703223383E-4
4.2651425043934143E-4
-3.089824893265344E-4
1.3408596897463145E-4
-5.157704032379529E-4
4.2658799267982205E-4
-9.935734768104242E-5
3.200316663378887E-4
-2.2159654057081222E-4
-1.4190705008379232E-4
-5.218627821564346E-5
1.7652373556490623E-4
-9.898926171702115E-5
4.1613525208168564E-4
3.761083716932646E-4
