-1.0731305134133061E-4
9.336379065745216E-5
-3.1256010982598286E-4
5.726588675376287E-4
-2.028955334169721E-4
-1.1683351716582222E-4
8.446928577533618E-5
2.214858038428651E-4
1.8004457009264974E-4
-3.848312271532826E-5
-4.071059824384562E-4
-1.275584649325395E-4
9.357425426692263E-5
-4.413922542346732E-4
2.540416632320706E-4
2.3165521676438077E-4
-2.0186309392084955E-4
2.2319596360744748E-4
-1.0644657679001136E-4
2.2648114959987337E-4
5.594671987751956E-4
-1.0954828593306973E-5
1.249916325313829E-4
-2.849449947079046E-5
-1.3548283736486853E-4
2.6681997724741077E-4
-3.1092797053230113E-4
1.1091867875981974E-4
1.6446564267079736E-4
3.8085714641779647E-4
-4.947344575731066E-4
-1.7508873310364295E-4
2.761220162490861E-4
1.9065000037830297E-4
-1.4407392817663227E-4
-3.9277662924155346E-4
1.9083245396439187E-4
-1.4567118683040693E-4
8.681237290433264E-5
-4.831110127373746E-5
6.376708160136594E-4
7.60240965803419E-4
2.685502628018574E-4
-3.7477816752429346E-4
-1.5873229663075958E-4
-3.131480643970993E-5
3.4582596531284725E-4
-1.5082004341530856E-4
-1.1265613773246316E-5
-1.0392957413410102E-4
-2.712967309048322E-4
1.2475967300812994E-4
-5.1442304769613964E-5
-2.3493693174633153E-4
1.1182572448961735E-4
2.7688391041960625E-4
-8.020842743546918E-5
3.7493880685433487E-4
-2.3554966115644157E-4
-8.447353833414482E-5
4.649842796222686E-5
2.292581020595726E-5
5.25575762902241E-4
1.8498962452367713E-5
3.940440721850809E-5
-8.986922629425081E-5
-3.784389523259204E-5
3.0320799610110085E-4
-3.5016393454402264E-4
1.315837749256305E-4
-1.2585703859726124E-4
-3.87912470156652E-5
1.6331120443060447E-4
8.833028922536038E-5
-1.5172637337281208E-4
1.213530218962163E-4
6.066805644588351E-5
1.7688393903071947E-4
-3.1847914450032906E-4
-1.4620469281233011E-4
8.5961827537329E-5
6.907938864969407E-5
7.556057017156542E-4
3.2660023246568925E-4
-1.1452527020594436E-4
3.905860812537092E-5
-1.552183480020925E-4
2.515036447563962E-4
-3.531052469799079E-4
3.681162122850033E-4
-1.539804414791237E-4
1.8988054396553114E-4
-2.344571112061446E-4
-1.5632679110329274E-4
4.308593974277313E-4
3.9993601217744876E-4
-3.8761030704992556E-4
3.953044826505188E-5
-4.218673258227681E-4
2.638565902812272E-4
1.0567552886672032E-4
-2.0597180003744148E-4
-3.620151223988363E-5
7.585227728094497E-4
7.88957015757703E-4
-7.523084754083744E-5
-3.854844242632675E-5
-1.3733192949276065E-4
2.5078040164105893E-4
1.5201359063672223E-4
-1.9818837758318363E-4
4.2728039566229235E-5
4.357076103220534E-5
2.332782393274868E-4
-7.461834795035676E-5
-4.201355453301649E-4
-2.0374013858697054E-4
1.2936111265313992E-4
2.1045397490239033E-4
6.398895705761209E-5
1.6960442766119074E-5
1.105777046967125E-4
-1.4272481414960076E-4
4.6597971713497435E-5
6.410977883931205E-4
6.620683685740315E-4
-1.3267676195030542E-4
8.418177279107744E-5
-1.654171088825107E-4
3.765696645173473E-4
-1.825793122698268E-4
5.329440200827745E-6
-4.455544500486542E-5
-1.0743040556025262E-4
1.0441522017877252E-5
3.7714895703901596E-4
-3.984813348007932E-4
-2.979605231434555E-4
1.9610914362612692E-4
-2.083122001744335E-5
1.9952620320765621E-4
1.1148492012546031E-4
-2.836073611167613E-5
-1.1428732801834133E-4
9.927055351549264E-5
6.423488063525513E-4
7.421239796146106E-4
1.9944815396199007E-4
2.3251610332315335E-5
1.1576348578987925E-5
-1.0257954527136642E-4
-1.666423971759059E-4
-1.3024014452992188E-4
2.8693597508362326E-4
2.719184260884933E-4
-3.1883896148533693E-4
-1.377500249862836E-4
-4.0561954115794833E-4
4.698369373848719E-4
1.642782069823379E-4
-2.1623240995903648E-4
7.189820752432607E-5
-3.7781452727049997E-6
4.802804640204797E-5
-1.445603865096247E-4
1.0418934377254473E-4
7.928527260173292E-4
6.875759676567447E-4
8.513086687066029E-5
9.518421463300449E-5
-9.673792667401097E-5
-2.5825475862763844E-4
6.900071340983213E-5
5.827589396636866E-5
1.0438033171026643E-4
-1.5123064844144057E-4
-1.4301796520576728E-4
2.2166783124184884E-4
-9.266489585247744E-5
3.566280942282762E-4
4.514307498983973E-5
1.8025985430077118E-4
-2.7864861017608505E-4
-2.1921125955541001E-4
1.9761732610796802E-4
-1.69769557853654E-4
1.110784695312366E-4
8.716668021990599E-4
4.725541833791833E-4
-3.1799016898588717E-4
3.8394605009236805E-4
3.7778417621137694E-5
-1.2384084559923287E-4
-1.0839380749137166E-4
1.9412793644799951E-4
-1.2481379092078927E-4
-2.983793671552959E-4
3.8981177256632477E-4
-6.3106918447762E-6
-4.566391860001974E-4
1.4748075080725257E-4
4.345478964141329E-4
3.1652456603808624E-4
-3.437661087092885E-4
-1.5758492888125498E-4
1.6804198318031948E-4
-8.954748813113205E-5
2.0091913686552705E-5
8.698983453827009E-5
8.515130228768896E-5
2.385648006744226E-4
-2.466597372331697E-4
3.20190620079139E-4
-5.9228988294151136E-5
-3.819312701672183E-4
1.315873312682828E-4
-2.716291222637349E-5
1.9927549773916437E-4
1.6800121731606668E-4
-2.1601384821765817E-4
-1.6142967161586466E-4
5.13812713873942E-4
-2.6900997577468204E-4
-3.0820180856091324E-4
2.6086120104878233E-5
7.280002385946976E-5
3.0690545344672077E-4
-3.442281198328876E-4
8.278114644257655E-5
5.640651592183205E-4
1.906457921294069E-4
1.412248937648362E-4
-1.7467004878910186E-4
3.309999685047866E-4
-1.9875356706905775E-4
8.515163428439021E-5
-2.2335234516336549E-4
3.090262585817982E-5
1.062163710140974E-4
-1.6386404052007254E-5
-1.2301198106764164E-4
2.525663189236135E-4
-1.193902765874512E-4
1.9415771887820933E-4
-3.942392663635435E-5
-6.35994348875331E-5
-1.667676333800833E-4
-2.629509758454258E-4
2.3629251191527396E-4
-6.842485833110904E-5
7.652257853948589E-4
9.628984802988133E-4
-1.6253943594451598E-4
2.972023980876252E-4
-1.8554844982708257E-4
-2.635362591023261E-4
3.370490803767762E-4
-1.6483160304169578E-5
-1.0508062284159208E-4
-2.184116096633602E-4
-3.207551069892817E-4
3.8352411897210587E-4
-2.7139968242479074E-4
2.179083060629473E-4
1.722798714683833E-5
2.1115989084810672E-4
-1.4620806443373853E-4
2.718915491775335E-4
-2.496404768539207E-4
-7.111143150818077E-6
4.9398058474600125E-5
1.5149579452342513E-4
6.545713455034851E-4
-1.320194096623756E-4
-1.3145252904783812E-4
2.832953591863517E-4
2.2258349365009283E-4
-3.29591699461239E-5
-1.8673329236637367E-4
-1.0786010696954989E-4
2.7642173498926265E-4
-1.653117980978828E-5
1.9809244228060412E-4
-3.1254112049408243E-4
-3.9628917977648154E-5
5.285375259952078E-5
-3.06073259053702E-4
8.956064585986762E-5
1.2397140457964229E-4
5.4326142034843456E-5
-9.8440829492352E-5
3.674393159607257E-5
-1.2119915446623832E-5
2.007147301819462E-4
-1.2563557135319192E-4
-4.562084589580179E-5
1.6124104353766182E-4
3.435067743867131E-4
-2.844442792592494E-4
1.0561472923099477E-4
-2.7109013760094874E-4
3.756500772455068E-4
3.362037116352648E-4
-2.1836484921007465E-4
3.101924833277814E-4
-2.180908062439373E-4
-2.83639996320818E-4
-1.0718104972288232E-4
2.440013812551498E-4
-3.35400077566308E-4
-1.387000107578927E-5
1.2966173987702344E-4
-2.605072427765878E-5
8.680485461946381E-4
3.936689839470743E-4
-5.905367873207976E-5
1.7594452480271356E-4
-2.2306231244384193E-4
1.9757693435709675E-5
2.1322669450020657E-6
4.2173418151706556E-5
1.220827300903477E-4
-2.5273373530091786E-4
8.698360175565215E-5
-1.4016183644138366E-4
3.756913178275813E-4
-2.9672125664171185E-4
4.104446712678568E-4
3.395953615514573E-5
-3.2078321166539755E-4
6.4498882733767E-5
-3.0431400347480717E-4
2.9588583263273985E-4
-7.056014696024023E-5
4.356173370977816E-4
4.25330361956476E-4
2.440834056363197E-5
-9.650259700487703E-6
2.80164263968623E-4
-4.2706069833240253E-4
1.8359347285039097E-5
1.0317666625237519E-4
2.736439992286665E-5
-1.3932561203413852E-4
-2.0244528104939875E-4
3.572620792458003E-4
-4.527722602639283E-5
-1.6136215260154492E-4
2.7317807242049794E-4
5.231055219550698E-5
-1.7935913705101754E-4
2.3789050830092413E-5
7.681014236046736E-5
-1.275436415587417E-4
9.788790207776427E-5
6.490954917278291E-4
8.87681787088148E-4
-1.1896931934365987E-4
1.774258813525161E-4
-2.1395562103761312E-4
1.0001974241802553E-4
2.4207903269135862E-4
-1.8163536634079852E-4
-1.17595957002882E-4
1.9332876724981773E-4
1.846813961870048E-4
-2.7033274652706816E-4
4.6275318549209645E-4
2.5492330447656688E-5
-2.0200206438290958E-4
-1.4774897408731502E-4
-2.5227785283481256E-4
1.011096329587354E-4
-1.0823837091279859E-4
1.6468252658665466E-5
-6.624804306613234E-6
2.7630833163509743E-4
7.51598641129533E-4
-1.8707876179801038E-5
1.8842945148777805E-5
9.015592095799642E-5
1.809802052154495E-5
-1.3276738173830896E-4
-2.4629499023548847E-5
1.9373508058751388E-4
-3.6680430781805756E-5
2.5663282883682975E-4
-4.3068031306968304E-4
2.986058624404989E-4
-2.192615547545833E-4
-1.6413179055870908E-4
3.6144369841696367E-4
1.3556850556333444E-4
-3.5976693584242083E-4
3.448189862142149E-4
-1.6689299509184383E-4
2.804589160234131E-5
5.657321902606816E-4
6.899856895331531E-4
-2.024622659823971E-4
4.4075377894785197E-4
1.608794004368314E-4
-2.4309630100934843E-4
-1.3650678851345128E-4
1.1434646050154017E-4
-1.5657335950154403E-4
4.359330303263651E-4
-3.0648490586938297E-4
1.3756764868275072E-4
-5.141601255464174E-4
4.281982703713264E-4
-9.774706998953104E-5
3.1951908159717687E-4
-2.236997423862721E-4
-1.5393994119901412E-4
-4.911075106436944E-5
1.7356727356411772E-4
-9.277617639242112E-5
4.075037469420995E-4
3.761083716932646E-4
