-1.0750171892875333E-4
9.313563052228198E-5
-3.1265295118644337E-4
5.725660261771656E-4
-2.0263532285631E-4
-1.1697045962294889E-4
8.448699045876985E-5
2.2123691797844647E-4
1.7976269512095603E-4
-3.893316532926104E-5
-4.079059853060903E-4
-1.2835846780017123E-4
9.277425139928952E-5
-4.4161227332353115E-4
2.538999526276057E-4
2.3598628147376093E-4
-1.9583401852947324E-4
2.1642087436550382E-4
-1.0769527482709316E-4
2.2623743024630967E-4
5.594671987751956E-4
-1.1019153792003196E-5
1.2487386697769215E-4
-2.854967571041871E-5
-1.3553801360449653E-4
2.6707406798217383E-4
-3.11021017127714E-4
1.1085454381304579E-4
1.6440456693087623E-4
3.807638663022223E-4
-4.948755725459317E-4
-1.7534859473905139E-4
2.7586215461367704E-4
1.9039013874289475E-4
-1.441467090162112E-4
-3.9282803588509396E-4
1.9222924620851707E-4
-1.4366560628087572E-4
8.45642957296846E-5
-4.870738756020677E-5
6.375843241972341E-4
7.60240965803419E-4
2.687242222077844E-4
-3.746254135806144E-4
-1.5870436022005159E-4
-3.128687002900271E-5
3.463050656535146E-4
-1.5112525901978742E-4
-1.1552492831234808E-5
-1.0357671182535369E-4
-2.710176255073694E-4
1.251980767024049E-4
-5.0722625448449644E-5
-2.342172524251664E-4
1.1254540381078238E-4
2.7707299126468406E-4
-8.010278983280762E-5
3.710051424075731E-4
-2.4069574076593392E-4
-7.867266727388362E-5
4.765774876313534E-5
2.302958597483484E-5
5.25575762902241E-4
1.8624579486903754E-5
3.9550520838737664E-5
-8.98742948520625E-5
-3.78489637904034E-5
3.038031215204059E-4
-3.504871040165659E-4
1.3127145343796195E-4
-1.2550323084238775E-4
-3.8532305626101585E-5
1.6371816037316807E-4
8.897503483381153E-5
-1.5108162776436096E-4
1.219977675046679E-4
6.0842493646778895E-5
1.7697364974956933E-4
-3.2198296947196024E-4
-1.5071403652139366E-4
9.103500227051628E-5
7.012048949034015E-5
7.556684537732034E-4
3.2660023246568925E-4
-1.1452439109162344E-4
3.909740956533646E-5
-1.55212005603609E-4
2.5150998715487826E-4
-3.5318906197738515E-4
3.6819942486918496E-4
-1.5402550125827373E-4
1.8993663405436823E-4
-2.3444025948779143E-4
-1.563073016581299E-4
4.308917964497785E-4
3.9996841119949617E-4
-3.875779080278785E-4
3.954408979599636E-5
-4.218613639971664E-4
2.6370634262840796E-4
1.0544492748134535E-4
-2.05763461576211E-4
-3.612999327051772E-5
7.585345723625989E-4
7.88957015757703E-4
-7.540045233331537E-5
-3.870047238326036E-5
-1.37311317434492E-4
2.508010136993272E-4
1.515841267542064E-4
-1.9806427324024618E-4
4.289924524527208E-5
4.328518918706109E-5
2.3297861427634548E-4
-7.513322384511562E-5
-4.2099369049422076E-4
-2.0459828375102608E-4
1.2850296748908492E-4
2.1021486638036702E-4
6.385253829942372E-5
2.159830202231472E-5
1.1678288622566697E-4
-1.4977321979969824E-4
4.528218089703169E-5
6.40896150539348E-4
6.620683685740315E-4
-1.331568639030242E-4
8.36335901807456E-5
-1.6552768091718923E-4
3.764590924826683E-4
-1.829615576820346E-4
5.451547292759239E-6
-4.4177104177665844E-5
-1.0824934136967168E-4
9.635376553020126E-6
3.7584726879264847E-4
-4.0069258499564987E-4
-3.001717733383138E-4
1.93897893431269E-4
-2.1443295209331662E-5
1.9916583212764124E-4
1.2344955122609033E-4
-1.2146447329705506E-5
-1.3256310811945874E-4
9.582037603493052E-5
6.418215817207773E-4
7.421239796146106E-4
1.987043180013994E-4
2.228480025587851E-5
1.1282841269610969E-5
-1.0287305258074285E-4
-1.668938132095743E-4
-1.300826634123059E-4
2.8749163789987774E-4
2.70572441770036E-4
-3.201573234573856E-4
-1.3981694262099384E-4
-4.0913906399316384E-4
4.663174145496551E-4
1.6075868414712184E-4
-2.171939510458276E-4
7.131458254214759E-5
1.5289050548503014E-5
7.394518182128177E-5
-1.7371628300729593E-4
9.867104546255805E-5
7.92031395348121E-4
6.875759676567447E-4
8.420626431622798E-5
9.388606071250401E-5
-9.719587822749269E-5
-2.587127101811193E-4
6.893603160465308E-5
5.8400771772618235E-5
1.0501911711932471E-4
-1.5297615048796333E-4
-1.447390641286274E-4
2.1899231211711155E-4
-9.722994554965068E-5
3.520630445311037E-4
4.057802529266733E-5
1.7901824077674595E-4
-2.7941724458013995E-4
-1.944888092765487E-4
2.3129976053668972E-4
-2.076379291593339E-4
1.0391699924094034E-4
8.705927239199986E-4
4.725541833791833E-4
-3.1901558650388265E-4
3.82450235413489E-4
3.7215874771837604E-5
-1.2440338844853417E-4
-1.083808247027737E-4
1.9424041853056547E-4
-1.241476097314747E-4
-3.0039088434843724E-4
3.8782686533871325E-4
-9.404057037151503E-6
-4.619243210401388E-4
1.4219561576730828E-4
4.2926276137419424E-4
3.150814994996353E-4
-3.446632726296803E-4
-1.2900015340062688E-4
2.0702039838111182E-4
-1.333669128961834E-4
1.1807790255306003E-5
8.574494718138391E-5
8.515130228768896E-5
2.376634890344756E-4
-2.4803627223045463E-4
3.1966489843224754E-4
-5.9754709941040726E-5
-3.8189187859032233E-4
1.3162887807873183E-4
-2.6609892559292503E-5
1.9740020868321277E-4
1.661530808743758E-4
-2.1891999511366937E-4
-1.6639248172883915E-4
5.088499037609644E-4
-2.73972785887658E-4
-3.0957270738351806E-4
2.5236480339953245E-5
9.956367687537561E-5
3.434341404877036E-4
-3.8529324599985925E-4
7.502026265184676E-5
5.628965728113289E-4
1.906457921294069E-4
1.403173123173976E-4
-1.7599603582892052E-4
3.305028864860663E-4
-1.992506490877748E-4
8.514939637978789E-5
-2.2335199156264487E-4
3.141790680429573E-5
1.0433243814208188E-4
-1.824236171746245E-5
-1.2595777664731832E-4
2.475367387515737E-4
-1.244198567594918E-4
1.8912813870616864E-4
-4.082511925191077E-5
-6.445127079805841E-5
-1.3968355616395702E-4
-2.2597674363693032E-4
1.9470584783369663E-4
-7.627738862530596E-5
7.640360109793054E-4
9.628984802988133E-4
-1.6296096229794947E-4
2.9653352284516005E-4
-1.8578332870269285E-4
-2.6377113797793625E-4
3.37032442194076E-4
-1.6550190651518016E-5
-1.0485638189819365E-4
-2.1942508570069451E-4
-3.2174215261072427E-4
3.8195461421024006E-4
-2.740442018808499E-4
2.1526378660688498E-4
1.4583467690779367E-5
2.1041105356444176E-4
-1.4665257772301048E-4
2.860077814189263E-4
-2.3035608341461194E-4
-2.881786465812639E-5
4.52976767331868E-5
1.5089190551085974E-4
6.545713455034851E-4
-1.3163401915981465E-4
-1.310110064066412E-4
2.834537409401259E-4
2.2274187540386706E-4
-3.289356706083015E-5
-1.8693000576624176E-4
-1.0812927983336631E-4
2.768921612922069E-4
-1.605175678591086E-5
1.9887407759849808E-4
-3.1114449233461E-4
-3.8232289818173837E-5
5.425038075899381E-5
-3.057118089121424E-4
8.979884105513123E-5
1.1622508604264715E-4
4.3806280451037516E-5
-8.662906278184289E-5
3.897542181169645E-5
-1.175511429183634E-5
2.007147301819462E-4
-1.2426643273044018E-4
-4.378508375289844E-5
1.6186156858180413E-4
3.441272994308503E-4
-2.8416538488238157E-4
1.0531483645205308E-4
-2.7195364252925573E-4
3.780629953432532E-4
3.3859440195848744E-4
-2.1452405021276437E-4
3.1680657060669047E-4
-2.1147671896503726E-4
-2.770259090419219E-4
-1.0537701543377992E-4
2.450905318899622E-4
-3.713152724822284E-4
-6.276924610859559E-5
1.8464186924461732E-4
-1.567307301164485E-5
8.696405382196209E-4
3.936689839470743E-4
-5.6384811875425606E-5
1.7958817319301874E-4
-2.218272933175081E-4
2.0992712562043534E-5
2.7161343202026083E-6
4.1749557015637644E-5
1.2039120671088915E-4
-2.4772448557222403E-4
9.193613327516454E-5
-1.3227356278148404E-4
3.891905263672688E-4
-2.8322204810202E-4
4.2394387980753914E-4
3.76597180710792E-5
-3.185682889371482E-4
-8.592514364248836E-6
-4.0387284406812794E-4
4.078585753159391E-4
-4.943397229611537E-5
4.388328344809065E-4
4.25330361956476E-4
2.9099642416489295E-5
-3.304119160066287E-6
2.8233940189770917E-4
-4.2488556040330683E-4
1.931806415342302E-5
1.0254958367750957E-4
2.4364419401810887E-5
-1.3044343229381622E-4
-1.9363877835885596E-4
3.7118757790481117E-4
-2.1490457161654703E-5
-1.3757538373681402E-4
2.969648412852276E-4
5.8842187299561254E-5
-1.754103407825523E-4
-1.0494855257654401E-4
-9.858921414104175E-5
6.979400155721198E-5
1.3510599053897856E-4
6.547682933179276E-4
8.87681787088148E-4
-1.1223800549626587E-4
1.866152916925909E-4
-2.1081891368472872E-4
1.031564497708991E-4
2.4342824729107828E-4
-1.8243378043320896E-4
-1.2196398751213936E-4
2.0620211834274053E-4
1.9747950453248523E-4
-2.501860388063971E-4
4.971184364163484E-4
5.9857581371901636E-5
-1.676368134586555E-4
-1.382790606611083E-4
-2.464913026745765E-4
-8.481549296511027E-5
-3.615310749153062E-4
3.0155286100099144E-4
4.713789589830132E-5
2.844838289038453E-4
7.51598641129533E-4
-9.601244048010296E-6
3.131743809305645E-5
9.439214191608038E-5
2.2334241479625453E-5
-1.3099657267396644E-4
-2.5556769987744562E-5
1.8780583972573473E-4
-1.922867132061465E-5
2.7403831301387463E-4
-4.033244116577544E-4
3.4525883694564444E-4
-1.726085802494656E-4
-1.1747881605359138E-4
3.7432691278561084E-4
1.434785671165562E-4
-6.120670611537302E-4
1.1696821876268483E-6
2.200358433549961E-4
1.0102676714850721E-4
5.768263334527364E-4
6.899856895331531E-4
-1.9099409376824287E-4
4.5652010641533626E-4
1.6616148109043576E-4
-2.37814220355758E-4
-1.3425509258117844E-4
1.1319110534770766E-4
-1.6409108426481878E-4
4.5786311794607877E-4
-2.8456438231053914E-4
1.720403600172568E-4
-4.5538306273954014E-4
4.869753331782073E-4
-3.897000718264247E-5
3.3569065505755587E-4
-2.137305360550158E-4
-4.713556538163409E-4
-4.814066612333789E-4
6.603354877421765E-4
-9.62929731115486E-7
4.214756849431658E-4
3.761083716932646E-4
