-1.0750344816493609E-4
9.313359872171861E-5
-3.1265364968283827E-4
5.725653276807706E-4
-2.026355885975386E-4
-1.1697017573747503E-4
8.448802157388112E-5
2.2123404450079533E-4
1.797598216433049E-4
-3.893771636036263E-5
-4.0791382291340396E-4
-1.2836630540748398E-4
9.276641379197654E-5
-4.416144077851857E-4
2.538986560497072E-4
2.360288382671293E-4
-1.9577605351475084E-4
2.1635561361554447E-4
-1.0770757839698443E-4
2.2623550975940648E-4
5.594671987751956E-4
-1.1000221940880933E-5
1.2489581386074334E-4
-2.854202947272114E-5
-1.355303673667985E-4
2.670769723444314E-4
-3.1102416925065074E-4
1.1084330525149786E-4
1.6443584974831617E-4
3.807951491196621E-4
-4.948260287066253E-4
-1.7526321037205926E-4
2.7594753898066903E-4
1.9047552310988699E-4
-1.4412346824255247E-4
-3.9281394423942113E-4
1.9176542831212184E-4
-1.442973238457834E-4
8.527554357593055E-5
-4.857329890575079E-5
6.376052819313266E-4
7.60240965803419E-4
2.6867673353891215E-4
-3.746781547770711E-4
-1.587236295054591E-4
-3.130613931441001E-5
3.462977236685401E-4
-1.5111713137615698E-4
-1.152473543502263E-5
-1.0365407069345178E-4
-2.7109498437546714E-4
1.250756031477698E-4
-5.093418386393713E-5
-2.3442881084065348E-4
1.1233384539529524E-4
2.770154808391165E-4
-8.01373984975075E-5
3.72155965148019E-4
-2.3912859344596692E-4
-8.043724625504129E-5
4.732512614902642E-5
2.297739640035644E-5
5.25575762902241E-4
1.8567179428098268E-5
3.9477034288997675E-5
-8.989655558494919E-5
-3.787122452329057E-5
3.0379521142390344E-4
-3.504771841457232E-4
1.3130731843622422E-4
-1.2559948803851168E-4
-3.862856282222572E-5
1.6356540553974118E-4
8.871326904559558E-5
-1.51343393552577E-4
1.2173600171645222E-4
6.0771238409166566E-5
1.7692914446871768E-4
-3.205665530350487E-4
-1.487838914299495E-4
8.886210389862438E-5
6.971048542751425E-5
7.556048694796331E-4
3.2660023246568925E-4
-1.1443099785092769E-4
3.9192547817510545E-5
-1.5517572719820103E-4
2.515462655602852E-4
-3.5317723032517775E-4
3.681779268401189E-4
-1.5408145411876877E-4
1.900773560284007E-4
-2.342995375137594E-4
-1.560841540214847E-4
4.312789659303948E-4
4.003555806801119E-4
-3.871907385472629E-4
3.9647950097063674E-5
-4.217974534071671E-4
2.615969933881686E-4
1.025726326175769E-4
-2.0252793023592308E-4
-3.5519353740294086E-5
7.586316053049901E-4
7.88957015757703E-4
-7.508281300487964E-5
-3.832013203847094E-5
-1.371891591315307E-4
2.5092317200228775E-4
1.516292016166943E-4
-1.9811777299492085E-4
4.271078170248891E-5
4.380599233267874E-5
2.3349941742196277E-4
-7.430642767512191E-5
-4.1957150379244134E-4
-2.031760970492454E-4
1.2992515419086667E-4
2.10602507189438E-4
6.40896395414529E-5
1.3883459082161315E-5
1.0627370479382419E-4
-1.3794181878412455E-4
4.751369532815803E-5
6.412441799460443E-4
6.620683685740315E-4
-1.3259183849746538E-4
8.436106034277212E-5
-1.6529910622787076E-4
3.766876671719874E-4
-1.8287048897893616E-4
5.377198986168477E-6
-4.45162188655819E-5
-1.0726474165303969E-4
1.0619976269652108E-5
3.7740657650254687E-4
-3.9801907122234166E-4
-2.974982595650055E-4
1.9657140720457584E-4
-2.0710026491269597E-5
1.996112942037464E-4
1.0896841019548395E-4
-3.187573947164756E-5
-1.103571138549336E-4
1.000056555970378E-4
6.424685262016077E-4
7.421239796146106E-4
1.995196888646719E-4
2.3384293777799686E-5
1.1637292506442315E-5
-1.02518601343912E-4
-1.6674696831943297E-4
-1.3017755358886297E-4
2.8698082336878797E-4
2.720632495322711E-4
-3.186665156951522E-4
-1.374627580593056E-4
-4.051125823662089E-4
4.7034389617661227E-4
1.6478516577407722E-4
-2.160895148379972E-4
7.198904802964174E-5
-6.500098985765671E-6
4.4255138308840355E-5
-1.4030066250906683E-4
1.0496691377417262E-4
7.929992899068447E-4
6.875759676567447E-4
8.520900871249968E-5
9.528574304876067E-5
-9.673137894761944E-5
-2.582482109012464E-4
6.913561442063542E-5
5.829500744457481E-5
1.043652704964595E-4
-1.5106594408504715E-4
-1.4282885772571143E-4
2.220042930525797E-4
-9.209118091252457E-5
3.572018091682296E-4
4.571678992979344E-5
1.8042733847749293E-4
-2.7855047631417654E-4
-2.2226965563095077E-4
1.9344213410360083E-4
-1.650292287639708E-4
1.1194390485435942E-4
8.71820361628984E-4
4.725541833791833E-4
-3.1792283493841436E-4
3.8401219564046545E-4
3.774634336158845E-5
-1.2387291985878349E-4
-1.0814655591142008E-4
1.941422066604716E-4
-1.2487372877776175E-4
-2.982344561609514E-4
3.8998329352619906E-4
-6.003869935765857E-6
-4.5613563111488326E-4
1.4798430569256145E-4
4.3505145129945E-4
3.166724808730689E-4
-3.436827863261684E-4
-1.6025728166165032E-4
1.6442415972773425E-4
-8.542319319965159E-5
2.0838795057829003E-5
8.711823611188657E-5
8.515130228768896E-5
2.387220535953852E-4
-2.4650132293282934E-4
3.2019432793399386E-4
-5.9225280439292675E-5
-3.816593570894997E-4
1.3155589942202682E-4
-2.731255431559315E-5
1.995522530219868E-4
1.6830512521315044E-4
-2.155248075859433E-4
-1.6062437553468072E-4
5.146180099551268E-4
-2.6820467969350143E-4
-3.0797944615104514E-4
2.621590153050877E-5
6.846610834728923E-5
3.0105372311694866E-4
-3.3758814793691017E-4
8.40052699877382E-5
5.642539562045396E-4
1.906457921294069E-4
1.4115139850062248E-4
-1.7476497089259266E-4
3.3093131224405653E-4
-1.988222233297852E-4
8.532773854125744E-5
-2.2337787781310348E-4
3.0872396340580356E-5
1.0609899545350954E-4
-1.6475804406035174E-5
-1.2317315087932807E-4
2.522495557128729E-4
-1.1970703979819317E-4
1.9384095566746885E-4
-3.951301662427734E-5
-6.364881976497973E-5
-1.650256650354608E-4
-2.605168543493331E-4
2.3359437600834477E-4
-6.89544956687312E-5
7.651308327218779E-4
9.628984802988133E-4
-1.6251941903267357E-4
2.972029301941443E-4
-1.8554710218741783E-4
-2.635349114626638E-4
3.371126525773942E-4
-1.6519946779192252E-5
-1.0513276372932705E-4
-2.1840236230396813E-4
-3.2071942921400046E-4
3.835539295619032E-4
-2.713639655470943E-4
2.1794402294064445E-4
1.726370402453735E-5
2.1116769483393944E-4
-1.4619392047871788E-4
2.716835708206985E-4
-2.498841715181945E-4
-6.813078366523112E-6
4.943906537320517E-5
1.51496362625141E-4
6.545713455034851E-4
-1.3197213642909142E-4
-1.3140855062656224E-4
2.833189256058649E-4
2.226070600696068E-4
-3.2979344783058085E-5
-1.8680787897549147E-4
-1.0790498566100881E-4
2.764407633366273E-4
-1.650315474149013E-5
1.9812740600466225E-4
-3.1247832908124504E-4
-3.9566126564810966E-5
5.2916544012357114E-5
-3.060606363843644E-4
8.958567800529673E-5
1.2362600423117165E-4
5.387739753590029E-5
-9.792796016772713E-5
3.684277331996483E-5
-1.2112069791729215E-5
2.007147301819462E-4
-1.2569587186099377E-4
-4.5688405681409324E-5
1.6121123958113027E-4
3.434769704301774E-4
-2.8446149814343716E-4
1.055493805018656E-4
-2.710341666965101E-4
3.7551950808810376E-4
3.3605091470333625E-4
-2.1858830573584802E-4
3.0981472394449804E-4
-2.1846856562723145E-4
-2.840177557041152E-4
-1.0728570258416047E-4
2.4393143368479887E-4
-3.333416183338181E-4
-1.103940520595687E-5
1.2645840187091805E-4
-2.6636832070685272E-5
8.679374262908052E-4
3.936689839470743E-4
-5.919864620968414E-5
1.7576344010934242E-4
-2.2313320578845388E-4
1.9686800091095926E-5
2.1607580000531228E-6
4.209961832462317E-5
1.221885330185261E-4
-2.5296918018768955E-4
8.669143865970783E-5
-1.405977391749371E-4
3.749482572056026E-4
-2.974643172636845E-4
4.0970161064587116E-4
3.375103906779661E-5
-3.2093823136351114E-4
6.85319046453627E-5
-2.9879197919971477E-4
2.896209094172907E-4
-7.17061021980311E-5
4.3541108443181557E-4
4.25330361956476E-4
2.454589550884274E-5
-9.527597088320761E-6
2.802144659580748E-4
-4.270104963429399E-4
1.844299288041846E-5
1.0304623663477886E-4
2.7282071007000122E-5
-1.3907569608263257E-4
-2.0227104214767575E-4
3.575461398655219E-4
-4.47816327885311E-5
-1.608665593636806E-4
2.736736656583618E-4
5.2441743245673125E-5
-1.7930576902306278E-4
2.102957817735498E-5
7.306911869581971E-5
-1.2340131374158982E-4
9.87166948707736E-5
6.491991389742533E-4
8.87681787088148E-4
-1.1893872219481033E-4
1.7745991275161993E-4
-2.139295512402152E-4
1.000458122154246E-4
2.421601742552694E-4
-1.8174934586337495E-4
-1.1765671359997193E-4
1.9344657701028618E-4
1.8472396320003088E-4
-2.702926941864433E-4
4.628177915270664E-4
2.5556936482626547E-5
-2.0193745834794953E-4
-1.4770896295638504E-4
-2.5226305337846096E-4
1.0059540078479913E-4
-1.0888190919832534E-4
1.715403034315053E-5
-6.433808216303211E-6
2.7629818536668274E-4
7.51598641129533E-4
-1.8623643174313814E-5
1.89698719391752E-5
9.024425875379337E-5
1.8186358317345377E-5
-1.326958656017512E-4
-2.4690224820620337E-5
1.9360851113591713E-4
-3.6426964874095464E-5
2.568400194604008E-4
-4.304074404651797E-4
2.990820654658481E-4
-2.1878535172926197E-4
-1.6365558753338774E-4
3.6162772889718816E-4
1.3567241482278803E-4
-3.6261172430348827E-4
3.410894259656188E-4
-1.6265202767159616E-4
2.8933684150975078E-5
5.65827505883337E-4
6.899856895331531E-4
-2.026353385628211E-4
4.4062123646708624E-4
1.6088628948991232E-4
-2.4308941195627442E-4
-1.364357704284245E-4
1.1426466494605456E-4
-1.566456093380609E-4
4.3574098550670304E-4
-3.066865147499147E-4
1.3719698361539182E-4
-5.147759153359667E-4
4.275824805817806E-4
-9.836285977906293E-5
3.1936275963758077E-4
-2.2378097371156044E-4
-1.5068166179567835E-4
-4.443738671966633E-5
1.6835760099986706E-4
-9.365416941363188E-5
4.0734756548052543E-4
3.761083716932646E-4
